20 200
, -0.22611812 0.17285727 0.1436969 0.12754579 -0.09626291 0.13495559 0.09680936 -0.13386825 0.15912537 -0.14350498 -0.10283225 0.20668918 0.035581816 -0.061459597 0.06275568 0.12209298 -0.234417 0.08591664 -0.081137106 0.13842784 0.08578211 0.030353343 -0.40034035 -0.022427311 -0.031544667 -0.18070945 -0.06656666 0.17766005 -0.011824954 0.24842387 0.07805651 -0.12498144 -0.097248 -0.32129747 -0.25063837 -0.053299684 -0.3292734 0.2906614 -0.02954011 0.12979344 0.40540862 0.23226452 -0.21588315 -0.34246805 0.019409703 -0.1643557 -0.17520751 0.1356402 -0.1702309 0.12773804 0.1302044 0.14380586 0.074541695 -0.44107726 0.16243604 0.04117773 0.09705466 -0.29724398 -0.26550898 0.57788235 -0.122260906 -0.15968636 -0.026731452 -0.058255278 -0.10406611 0.07134132 0.09689251 -0.058159944 -0.16835012 0.015123586 -0.07716705 0.5829007 -0.13225824 -0.07399753 0.096905544 -0.04339317 0.07675829 0.071952134 0.07604623 0.044620562 0.10039122 -0.11790264 0.12294107 0.012256478 -0.22870918 -0.11602799 0.07763672 -0.04106791 -0.1447996 0.058028385 -0.07289283 0.19884327 0.33482635 -0.24892887 0.0978524 0.23265354 0.09521874 0.44608268 0.13672057 0.08143232 0.21990928 0.0971024 0.15487115 0.086490706 -0.20703337 0.2486107 -0.13458028 0.15141274 -0.0138813695 0.006300642 0.08403115 0.06411255 0.1895077 0.5750353 0.059194114 0.015441914 -0.027411385 0.27558932 0.030113667 0.07627553 -0.0175995 0.052250378 0.17626257 0.05402038 0.011326038 -0.04202272 0.16088954 0.045478813 -0.13450243 0.032052066 0.010173132 0.22969736 0.008192729 -0.10630494 -0.1705468 -0.09930142 0.034297768 -0.030195497 -0.4248967 0.14370081 -0.077537924 0.3746404 0.30887967 0.016099855 0.08752705 -0.21551742 -0.12434417 0.17770919 0.19454363 -0.17421187 0.1480871 0.3025747 0.077669695 0.032864973 -0.07277266 0.121410795 0.08261885 0.054463975 -0.12951861 -0.112704195 0.028306581 0.09085809 -0.11778719 0.08954161 0.07676777 0.20237003 0.072080754 0.39165157 -0.15804216 -0.09886716 -0.09497779 0.055290606 -0.09519513 0.12172495 -0.295863 -0.06979917 0.3387946 0.15667446 0.29290012 0.10225894 0.09437282 -0.15246947 -0.075266555 0.25272816 -0.21773301 0.27377582 -0.26097688 0.0045634923 0.017697835 -0.28256938 0.08149457 0.37898397 0.14092232 -0.16340108 0.053122744 -0.027748846 -0.14438395 -0.51431847 0.08324448 0.0454174
the -0.023115067 0.07595574 -0.08352574 0.021107655 -0.32615474 -0.005543637 0.08545192 -0.34614095 0.24262656 -0.26345938 -0.036680162 0.2925766 -0.06769816 -0.19510782 -0.11468241 -0.22997943 0.18601161 0.19278497 -0.14278956 0.420946 -0.1354407 0.044789676 -0.22181696 -0.14675143 -0.037530098 0.11457664 0.2104394 0.13213372 -0.17164871 0.2126435 -0.102409 -0.039688874 -0.26783374 -0.41946128 -0.24428022 0.113809034 -0.490027 -0.11856752 -0.1440732 0.23701392 0.36975032 -0.026621284 -0.13878979 -0.4528198 0.30160636 -0.20224138 0.2796058 0.2396859 0.13627584 0.53293025 -0.04103235 0.3957483 -0.22469404 -0.19796202 -0.042924963 0.2383547 0.106823765 0.25999758 -0.32901224 0.19965169 -0.015559127 -0.22545375 0.2689682 0.11802584 -0.17088848 0.16304225 -0.1314792 -0.08871383 0.15404806 -0.021407232 -0.053627133 0.45311326 -0.12124886 0.029778235 -0.13108614 0.10712315 -0.020141441 -0.077936426 -0.27597657 -0.17377135 0.22128315 0.25340676 0.09989029 -0.10732653 0.05288591 -0.16077569 -0.050557923 0.17998083 -0.16841853 -0.015804114 -0.12226027 -0.28458178 0.18362084 -0.24686399 0.447825 0.5293847 -0.22704752 0.4233375 0.0054018097 -0.13144186 0.082392804 0.12115053 0.35519108 0.12465915 0.21372809 0.09439684 0.048519615 -0.15122654 0.20241587 -0.34213093 -0.10729196 -0.27523547 0.070245825 0.43389225 -0.25021467 -0.2609916 0.026903586 0.13719948 -0.09105314 -0.033880338 0.17162314 0.11545127 0.33976746 -0.059808508 -0.4586064 -0.15023305 -0.044217937 -0.009902513 -0.46566892 0.12831251 0.009084051 0.36454672 -0.10566905 -0.0066316505 0.017964305 -0.2583993 -0.03042429 0.33800876 -0.3391401 0.28365314 0.059726205 0.32436088 0.34465387 -0.099970035 -0.14820434 -0.32809046 -0.2803792 0.006818428 -0.16688904 0.028438432 0.2332235 0.08487233 0.009381829 0.0912342 0.15893707 -0.073376134 0.23271662 -0.10262954 -0.23472653 0.25201246 0.094358146 -0.38073844 -0.019169584 -0.1554725 0.111542866 0.18266156 0.23230751 0.06534689 0.1758219 0.14687322 -0.32726955 -0.05700875 0.030739056 -0.15128268 -0.21734099 0.050635185 -0.048393823 0.3323725 -0.037286434 -0.092172705 0.0275878 0.023822358 0.12132504 0.13437113 0.11714323 0.03137669 -0.23205386 -0.1694771 0.007941508 -0.29079387 0.11226521 0.4398726 0.15292813 0.039701585 -0.15810932 -0.076870956 -0.27944663 -0.1498862 0.41273776 0.21146871
. -0.10452817 -0.3042029 0.29663178 0.26683035 -0.010782491 -0.27418438 -0.30661696 -0.03418809 -0.049035057 -0.21507983 0.12338086 0.29415423 -0.078447565 -0.26844144 -0.11068653 -0.21862894 -0.103381924 0.07931747 0.05199232 0.31922415 -0.09789615 0.16349989 -0.2251694 -0.30534217 -0.13103029 0.08174958 -0.05824788 -0.16977234 -0.03602728 0.2760181 -0.013604209 -0.0775055 0.06459656 -0.27217978 -0.45603487 0.15542696 -0.3926984 0.05772997 0.2254623 0.165181 0.27219623 0.16566956 -0.23718414 -0.52199763 -0.21063909 -0.20039834 -0.32838827 0.23281287 -0.0009271365 -0.016830292 0.37355405 -0.026313763 0.034193683 -0.20582409 0.19119549 0.19730449 -0.0019357803 0.05582297 -0.1276262 0.37524638 -0.006893231 -0.16382615 0.034096055 0.08750018 0.102517575 -0.1965375 -0.062937655 0.1175538 0.12947693 0.08639962 -0.0680238 0.31529465 -0.008160827 -0.06535974 0.02691006 0.055437542 0.11701214 0.06780017 -0.10286281 -0.04542022 0.101116195 0.15219352 0.0032104887 -0.007640233 -0.12517837 -0.12646568 0.07017426 0.21116047 -0.20533538 -0.014065336 -0.23498976 0.16327196 0.23180474 -0.3503641 0.26981035 0.13503432 -0.07621236 0.219604 0.20570157 0.15876062 0.16611935 0.026997944 0.26553056 0.29716915 0.14498883 0.33719048 0.005741444 -0.058758583 -0.14704607 -0.106759556 -0.23285837 -0.10922752 0.054904804 0.36398637 -0.039908543 -0.38270488 -0.008922503 -0.06879461 -0.37874928 0.27870896 0.31528604 0.24299009 0.3921755 -0.06007675 -0.17692836 -0.41079986 0.26001552 0.18454517 0.03836949 0.24143907 -0.050521944 0.24638763 -0.08613755 -0.13371831 0.12325064 -0.09048604 -0.15164505 0.29425034 -0.17746362 0.16941275 -0.15206204 0.51821846 0.40503073 0.22403385 -0.09133326 -0.4503708 -0.21140586 0.17830688 -0.21342221 -0.02290164 -0.13458857 0.040983327 -0.11358975 -0.11220498 -0.2264121 0.14755401 0.15540296 0.25741422 -0.03978323 0.22137159 0.016244983 -0.37868083 0.15139101 -0.00109374 -0.24373166 0.22159423 0.4867907 0.09871985 -0.28808707 -0.0006819201 -0.42155534 0.13917683 0.14026083 0.01703829 -0.13425077 -0.014401455 0.39596134 0.34196353 -0.0056442884 -0.047379192 0.09027598 -0.23714414 -0.027817434 0.2307885 -0.03756956 -0.05445905 -0.25785613 0.041845214 -0.10263463 -0.013807315 -0.2002782 0.43044505 0.16763373 -0.28430447 -0.17837878 -0.19321544 -0.28437284 -0.37679097 0.14786002 0.23575334
of -0.03557601 0.093327425 -0.07581158 0.03816117 -0.29315957 -0.12699123 0.14108269 -0.13003744 0.09847162 -0.22414504 -0.14832617 0.20282154 -0.11217048 -0.25193486 -0.2190166 0.021872725 0.051204618 0.075843275 0.3041814 0.47019917 0.11514112 0.07497987 -0.2049979 0.22088061 -0.45273262 -0.0285806 0.06384102 0.11854068 0.10358347 0.30948773 0.03133264 -0.22660895 -0.24868637 -0.34718838 -0.35483435 0.042811785 -0.48900187 0.05410944 -0.22436085 0.2223802 0.13564458 0.16649152 -0.030596528 -0.5219671 0.0063095386 -0.12584832 0.3286882 0.082181506 0.22946376 0.3346174 -0.1002916 0.12794095 -0.28436872 -0.39651364 0.076418795 0.2815811 0.0673695 0.10474275 -0.24035822 0.4105918 0.04540008 -0.5254069 0.20502771 -0.015027556 0.15274195 -0.09799086 -0.19847642 0.03639412 0.10206296 0.08819493 -0.022009412 0.43163213 -0.04703822 -0.18008243 -0.18993355 -0.05065166 0.11081583 0.041593768 -0.10362733 -0.18299884 0.31190366 0.11781049 0.25847617 -0.42191428 -0.008233604 -0.276499 0.0008256277 0.23310739 -0.18874817 0.027196415 -0.06787113 0.09424002 0.22938746 -0.38516757 0.5176155 0.39901122 -0.1851372 0.4475261 0.4190975 0.016065063 0.41074964 0.05446001 0.272235 0.08931313 0.28306574 0.023163069 -0.016631069 -0.056595158 -0.041126646 -0.2950897 -0.12774786 -0.11935029 0.13918592 0.48973596 -0.43724883 -0.25770867 -0.036408752 0.09871055 -0.18295641 -0.06515004 0.13152896 0.0656208 0.21027218 -0.09776515 -0.4085494 -0.013725738 -0.22983181 -0.09275666 -0.57890743 0.18357168 -0.025092423 0.11373197 -0.09151784 0.0049559306 -0.17787698 -0.052795842 -0.09679721 0.34779865 -0.3306757 0.1719765 0.00051190815 0.29304582 0.33406165 0.0032524574 -0.028221535 -0.41532642 -0.3431767 0.10592036 -0.2119872 -0.009271604 0.23874769 0.09066037 -0.021959534 0.19602679 0.043228418 -0.04259267 0.47184384 0.08142168 -0.021581303 0.027521608 -0.051008567 -0.28943422 -0.12230473 -0.13349642 0.120940566 -0.022426825 0.1312235 0.2604173 0.118895106 0.06347604 -0.46195233 0.13006754 0.029580727 -0.04968037 -0.4410055 -0.14258498 0.21890014 0.31413576 -0.049164243 -0.27066427 0.08251222 -0.16969016 -0.008409653 0.12472117 -0.069029346 -0.09320009 -0.2662891 -0.08645194 0.021240477 -0.19048223 0.11002402 0.3775171 0.19843394 0.0174895 -0.27292743 -0.32417518 -0.3466953 -0.060215406 0.24231863 0.1759705
a 0.1676453 0.12659675 -0.15506499 -0.016125165 -0.17124586 -0.2456679 0.011182523 -0.006545462 0.14243695 -0.2178915 -0.21250954 0.2745659 -0.037865583 -0.27027833 -0.031822197 0.17725219 -0.15590526 0.20895644 0.027987726 0.37304392 -0.2436586 0.18038979 -0.23285294 0.16290672 -0.21124394 0.118021145 0.14849932 0.15640882 -0.27329957 0.05865568 -0.20240468 0.19378105 -0.22594072 -0.3503088 -0.45315942 0.11833808 -0.26563412 -0.049636975 0.13926 0.25985053 0.37508446 0.117803544 -0.15484193 -0.31916636 -0.011170112 -0.101725906 0.24498776 -0.008567638 0.10079357 0.5904245 0.042620573 0.1499053 -0.38944805 -0.14477329 0.04667133 0.2600873 0.21465802 0.05774058 -0.34094748 0.19391 -0.0633676 -0.13363121 0.1778257 0.022986228 0.086186685 -0.011257048 -0.46798497 0.057301983 0.036766186 -0.1366024 0.14724053 0.3686961 -0.41239142 0.03297739 0.00514973 -0.13582876 0.056639727 -0.08507028 -0.14679629 -0.09032159 0.15392767 0.056001823 0.019756453 0.11503174 0.14664352 -0.14975064 -0.22514695 0.5972211 -0.12525357 -0.051321458 -0.2891517 -0.3844847 0.09726612 -0.41794887 0.48357314 0.505409 -0.1092904 0.31719473 -0.052777953 -0.31721908 -0.18905804 -0.13263875 0.41540933 0.26610166 0.24984042 0.2572219 0.079443775 -0.08223386 0.09855075 -0.18100798 0.14033858 -0.23322883 -0.11795997 0.44262117 0.032200553 -0.005641049 0.125604 -0.047886554 -0.20604275 0.073486336 0.27343386 0.2945637 0.373308 0.014192002 -0.19950074 -0.18849452 0.029456723 0.14741194 -0.49544215 -0.16974184 0.0582599 0.37063888 -0.09630916 0.021010576 -0.19310375 -0.07889294 0.016509905 0.27039558 -0.102454625 0.29158902 0.06269559 0.24007468 0.4194315 -0.05136024 0.072355114 -0.2754942 -0.37202153 -0.24409097 -0.27907932 0.24704066 0.27927482 0.14263225 0.35433227 0.31127083 0.09213529 -0.06586027 -0.017318979 0.16380803 -0.044733144 0.2981855 0.012120132 -0.41854614 -0.09178914 -0.021377927 0.10380695 0.2653814 0.12394964 0.048768707 0.07187354 0.12444286 -0.48609748 -0.028851695 0.19093767 -0.07481444 -0.34798998 -0.115391195 0.17632473 0.19358218 -0.03514356 -0.37304717 0.25645274 -0.07286298 0.24853106 0.32563686 0.0043289755 0.08570183 -0.37008202 0.03007632 0.08069908 -0.09237386 -0.0014775156 0.26046297 0.19487163 -0.01747317 -0.31042793 -0.11219086 -0.13974571 -0.28893194 0.14210619 -0.115742035
and -0.011181857 -0.02251605 -0.03268911 0.007465735 -0.17832863 -0.016994225 0.115537785 -0.19113153 0.03900203 -0.273737 -0.14149915 0.10148983 -0.03347976 -0.17987892 0.033578627 -0.13566364 0.10674462 0.07423915 0.03636927 0.47424585 0.09808317 0.1452411 -0.29547268 -0.01887819 -0.18325654 0.1174033 0.10603071 -0.20999007 -0.09764745 0.45541054 -0.025536738 -0.1205712 0.04410873 -0.28114575 -0.17659812 -0.0021109222 -0.47924814 0.02545859 -0.0330463 0.050180584 0.2810723 0.08788891 -0.2545568 -0.46455702 -0.13088134 -0.013701892 0.05171803 0.004189336 -0.12077855 0.26802176 0.094385274 0.1575854 0.06554603 -0.31405762 -0.0723278 0.235441 0.011897636 -0.045076106 -0.49607494 0.30499926 -0.0969579 -0.20312844 0.24006669 2.3067922e-05 0.04200477 0.23658887 -0.06208693 0.0038615274 0.074599415 -0.14041711 -0.10758014 0.5312701 0.119152375 -0.06141385 -0.18427284 -0.017770462 -0.13575299 -0.07746612 0.0036832062 -0.100386545 0.24609885 -0.1441631 0.043381404 -0.16305143 0.051614176 -0.23968114 0.052906297 -0.010114319 -0.12871745 0.159421 -0.4933453 -0.08405725 0.23371702 -0.34341487 0.39350516 0.29145637 -0.10594236 0.3775959 0.20486604 -0.054654516 0.25118923 0.28693968 0.10805142 0.11262503 0.21823736 0.15813711 0.04898832 -0.0039593456 0.00087639986 0.004972068 -0.055439085 0.02827719 0.13844122 0.47217736 -0.3095525 -0.4202746 -0.13282824 -0.22806267 -0.051591665 0.1704796 0.18505359 0.0804248 0.1974109 -0.10232109 -0.19923219 0.035475504 0.07124472 0.15299164 -0.24962385 0.22864018 -0.23947315 0.16737938 -0.12718557 -0.00023351514 0.030784247 -0.00043728825 -0.18272142 0.21091399 -0.26698866 0.2462347 -0.01780711 0.36335033 0.393391 0.008647389 0.054584906 -0.27567193 -0.15040779 -0.1864408 -0.11942856 -0.094896466 0.024260283 0.08838928 0.19621088 0.009065484 -0.12766574 0.03364829 0.1499139 0.038104523 -0.03443146 0.0036400477 0.16673593 -0.24512203 -0.046870973 -0.23608136 -0.03770629 0.27292296 0.30356625 0.004111382 -0.11812154 -0.067709565 -0.25929236 0.07984873 0.21033259 -0.065658875 -0.38634506 0.070835 0.22029032 -0.044828933 0.21124767 0.08469606 0.018016726 0.12777796 0.18352757 0.3431117 -0.28400543 0.13903967 -0.37945524 -0.03658227 0.047236633 -0.17294122 0.020308 0.19312578 0.31338474 0.05108333 -0.042679127 -0.111394286 -0.3167021 -0.22759643 0.2958914 0.20577653
to -0.13945554 -0.2070772 0.21002086 0.008238446 -0.41374576 -0.05965867 -0.09461107 -0.2640979 -0.00045668348 -0.15512256 -0.22415821 0.21252853 -0.29461434 -0.02791768 0.006286007 0.009773535 -0.010052367 0.08002034 -0.036910173 0.34837618 0.20628108 0.24874292 -0.22528395 0.35714006 -0.2682777 -0.22382475 0.30530143 -0.030340208 0.107763946 0.41581732 0.023858959 0.3415011 -0.18460186 -0.0637436 -0.48671892 0.23403244 -0.3972129 -0.031624485 0.13274384 0.4715546 0.23704217 -0.006107755 -0.33010828 -0.45605525 -0.17642471 -0.2719308 -0.004864202 0.24431862 0.2259973 0.44076517 0.085294925 0.103320144 -0.058934763 -0.5423527 0.014377438 0.29672498 0.09401355 -0.13389039 -0.25849313 0.34460372 0.03943229 -0.17439626 0.030135214 -0.1477867 0.20785384 0.21392402 -0.25222942 0.09593591 0.16869971 -0.3349127 0.09257177 0.21051182 0.17008907 -0.015227127 -0.17198037 0.0671019 -0.09007516 -0.08206775 -0.20763187 -0.16513704 -0.029986205 0.2826024 0.09853254 0.07020969 0.037380256 -0.43163648 -0.08477779 0.19640481 -0.2871333 0.120734856 -0.22618486 -0.015720956 0.34201092 -0.06628261 0.3045169 0.4067477 0.051825665 0.33327088 0.134287 -0.09887283 0.15027885 0.07178148 0.6249625 0.21352355 0.42122948 -0.045461673 0.2386212 0.18085606 -0.09302375 -0.4103468 -0.014949423 -0.41029885 -0.047139637 0.6003233 -0.35592085 -0.43280005 0.061169107 0.007110405 0.015994113 -0.05169073 0.25754052 0.14132564 0.32629892 0.024783881 -0.3775913 -0.04039413 -0.043652255 -0.0022395754 -0.44452092 -0.1269242 -0.11464093 0.21009795 -0.09362132 0.124192044 0.17338866 -0.18823175 0.09579546 0.33518198 -0.26865447 0.1501161 0.32080412 0.27719665 0.66199625 0.08021526 0.14945668 -0.5607189 -0.17255884 -0.12984273 -0.020080114 0.024646312 0.19311842 0.13787383 0.17659847 0.11507675 0.06831083 0.28467944 0.09207401 -0.4816496 0.020544138 0.123165764 -0.13699076 -0.3074856 0.12379714 -0.12739888 0.1708053 0.16734172 0.4782166 0.031416807 0.017660176 0.18567881 -0.34563825 0.18382785 -0.026009172 0.15257572 -0.27602458 -0.09322844 -0.011061651 0.57007915 0.17333877 0.09239812 -0.027905157 -0.19813031 0.0999732 0.27856404 0.0024686386 -0.12916373 -0.18160033 -0.0930112 0.23958822 -0.27310303 -0.1675665 0.23495626 0.25917622 -0.10679631 -0.18368183 -0.2443632 -0.17501876 0.18578689 0.2196739 0.26755193
) -0.2623753 -0.051480405 0.098791316 0.040246267 -0.080784574 0.04552134 0.14343329 -0.01998502 0.16477403 0.159737 -0.080426 0.10439778 0.17285644 -0.11267376 -0.007656443 0.15511532 0.04103417 -0.16166256 0.19818564 0.3008025 -0.06775197 0.19960861 -0.29432115 -0.062185757 -0.34120962 -0.1974103 -0.25725457 -0.27299422 -0.09053177 0.16032724 -0.013782523 -0.46808302 -0.25483474 0.012050465 -0.30916566 0.119225495 -0.06409975 0.28900984 0.22018524 0.36229667 0.33119607 0.121135846 -0.16486098 -0.3527553 -0.13002461 -0.036243852 -0.26043233 0.24217342 0.19928782 0.14290869 -0.092306904 0.04340275 0.28563112 -0.60403025 0.13216975 0.22472344 -0.15236692 0.056696124 -0.23413107 0.10511003 -0.3848444 -0.39993176 -0.028800143 -0.085984424 0.06587193 0.15966713 -0.05373289 0.27170548 -0.3358155 0.1487478 -0.027233705 0.4553722 -0.17376405 0.020629259 -0.12544678 -0.042838763 0.032939553 0.1648504 -0.088114 0.021002457 0.29279658 0.013926984 0.101375885 -0.010672057 0.103673816 -0.102060944 0.1122271 0.027762854 -0.028022556 0.08587163 -0.3193587 0.095491834 0.3949162 -0.19996072 0.18510999 0.07737518 -0.13883401 0.1768959 0.13783996 0.4993881 -0.039923653 0.23581655 0.17123787 0.025060723 0.2448742 0.36705905 -0.10239622 0.07140467 -0.11642904 -0.12491233 -0.06484473 -0.03913519 -0.23744857 0.44770336 0.028949674 -0.21294744 0.1000339 -0.15278578 -0.07248984 -0.21423507 0.22010863 0.32899335 0.07685658 -0.11158113 -0.11769393 -0.28543073 0.2925356 0.13434264 -0.4609794 0.026942445 0.061618272 -0.022717495 -0.09368681 -0.27797538 0.21894714 -0.08269541 -0.1464732 0.45086834 -0.5405441 0.09318314 0.09030807 0.4398579 0.09206612 -0.038887773 -0.037596516 0.07157432 -0.32140595 0.09278859 -0.0874839 0.053020086 0.16310744 0.04971929 -0.0321051 -0.096810475 -0.16133034 -0.046945136 -0.23527443 0.18926744 -0.3285168 -0.06144777 0.09565306 0.13631704 0.26671618 0.37588772 -0.09999073 0.49504176 0.121574014 -0.013857248 -0.091207504 -0.052821986 -0.11419869 0.08634738 0.13475995 0.17157602 -0.33808878 0.17309393 0.006720901 0.26429078 0.24605522 -0.26533082 0.14907312 -0.33137804 -0.057412025 0.32121813 -0.08730152 -0.15984759 -0.37381473 0.19617155 0.15456726 -0.36968908 -0.21978314 0.28670684 -0.031914186 -0.05725851 -0.085081995 -0.2304709 -0.26360995 -0.52894706 0.061660115 0.1971295
( -0.08703055 -0.086302124 0.045169543 -0.05974364 -0.1030707 -0.010909912 0.08281901 -0.06741877 0.10439088 -0.007434395 0.049060382 0.22468446 0.08598487 -0.065663986 -0.13416825 0.2094137 -0.030682813 -0.20959826 0.21340176 0.38185266 -0.14516659 0.25710103 -0.31611848 -0.1432924 -0.31148815 -0.19324958 -0.31252217 -0.033701345 -0.046981573 0.14531507 -0.08478486 -0.49690184 -0.12755735 -0.08138979 -0.3317327 -0.16433187 -0.007686887 0.04471171 0.2891096 0.23844981 0.28118557 -0.04746972 -0.28218082 -0.3006553 -0.228436 -0.29369807 -0.27174598 0.2732967 0.05727883 0.18397644 0.06366444 0.07784923 0.30201572 -0.57497686 0.15051074 0.2065191 -0.17234097 -0.031858325 -0.32501715 0.25968865 -0.24959457 -0.40124282 -0.26913553 -0.066986255 0.18646581 -0.04647905 -0.118122146 0.18852267 -0.21123277 0.012327086 0.015527718 0.3390161 0.00047692595 -0.1580779 -0.1288875 0.047386598 0.00089866953 0.0050764917 -0.084857956 -0.13590825 0.37312075 0.09026708 0.06266023 -0.13570002 0.07281597 -0.13102861 0.04410153 0.14607571 -0.08280736 0.23372303 -0.30698773 0.27812096 0.4138898 -0.22566438 0.20698583 0.13948074 0.026457146 -0.00043462755 0.16560498 0.47567192 0.06717249 0.12265786 0.19936529 0.02184774 0.14117514 0.31704193 -0.098314986 0.13826548 -0.052971438 -0.17419961 -0.20731539 -0.11238151 -0.12722395 0.43488297 0.16885678 -0.29721355 -0.0751426 -0.16740838 -0.2024183 -0.02819781 0.20269926 0.29518676 0.07773899 -0.11302313 -0.019468347 -0.34658873 0.27053007 0.14875485 -0.4002839 0.069693275 -0.0479371 0.0074666366 -0.13370036 -0.196601 0.11471817 -0.13025096 -0.005501479 0.26110435 -0.32825285 0.124623835 -0.09303218 0.39546698 0.09991472 -0.05775154 -0.06474246 -0.11241219 -0.092786044 0.07632533 -0.022312855 0.11862723 0.045797735 -0.01000761 -0.13489817 -0.122334935 -0.11509365 0.18386172 -0.3727103 0.34623823 -0.33732465 0.09252151 0.27407727 0.039394986 0.1938542 0.3310864 -0.033814643 0.50549924 0.13346857 0.0660675 -0.025494235 -0.005962814 -0.15450905 0.055348713 0.0788368 0.08653067 -0.4202081 0.15705135 -0.07869621 0.30287656 0.1271539 -0.33286127 0.1210406 -0.3580147 0.0032642523 0.17364055 -0.07641044 -0.05269835 -0.34570298 0.20855437 0.19491288 -0.31692496 -0.16675958 0.49138913 -0.047839075 -0.059854325 -0.04707704 -0.22641307 -0.24353173 -0.43813518 0.26184374 0.051526602
in 0.10273691 -0.05225314 0.118575275 0.03175516 -0.26094064 0.17045999 0.012404953 -0.051535018 0.22076845 -0.31935892 0.30991027 0.30385488 -0.2910596 -0.25584206 -0.036057204 -0.32975063 0.08170225 0.29707953 0.12967737 0.35697892 0.17115007 -0.039657906 -0.43535635 0.24654981 -0.37863952 -0.02586448 0.19971764 -0.14573582 -0.2341601 0.27704352 0.23536469 0.07354204 -0.25304124 -0.25148124 -0.33475575 0.0042958437 -0.4075955 -0.22634907 0.015822941 0.30769166 0.21924117 -0.05695575 -0.30406868 -0.4911897 0.06070382 -0.16776876 -0.21097009 -0.014037041 0.18088067 0.13478152 -0.062842935 0.2058779 -0.23071998 -0.2848839 0.30464223 0.3812612 0.0069911117 0.25841132 -0.117026724 0.20956635 -0.12043929 -0.45644045 0.18992686 0.050225366 0.09736276 -0.22871591 -0.06560326 0.024936616 -0.28352833 0.021058952 -0.041883104 0.759235 -0.08559926 -0.22858529 -0.0884574 -0.084005974 -0.033348233 -0.3242188 -0.20002547 -0.14371856 0.13082267 -0.051798612 0.2748168 -0.10042666 0.14077257 -0.14543754 -0.024717383 0.30381086 -0.3877373 -0.28182614 -0.37042776 -0.025164643 0.4002953 -0.24284674 0.550555 0.5092496 -0.090972945 0.28592083 0.3696034 0.1272832 0.29255113 0.027036428 0.1916796 0.16903862 0.19831917 0.14370652 -0.14271258 0.13047887 0.10909421 -0.600058 0.1252916 -0.35382292 -0.05543629 0.26302326 -0.37681708 -0.15723833 -0.21129782 -0.17239448 -0.24860132 0.16498168 0.117691986 0.288456 0.24186477 -0.27330035 -0.2946816 -0.2593094 -0.011883922 -0.043273576 -0.18845089 0.012857219 -0.030727798 -0.054887187 -0.1693472 -0.10739974 -0.02673354 -0.050244033 -0.18906723 0.40559193 -0.3173038 0.09654006 0.049765795 0.44179326 0.2996589 0.06592259 -0.035057433 -0.631608 -0.50942266 0.023242198 -0.03636882 0.007903952 0.07602143 0.046395626 0.18057412 0.18177584 -0.02942048 0.16110685 0.16034424 -0.051311694 -0.0020777476 0.25246033 0.24360313 -0.28288364 -0.07582251 0.028709842 -0.1709249 0.098977655 0.35640094 0.05532012 -0.20862514 0.012289673 -0.146101 0.043583885 -0.26290026 0.014361024 -0.42898083 -0.16982429 -0.0065685958 0.1392505 -0.015010503 -0.16559109 0.002809143 0.06829189 0.19682842 0.12883642 -0.072341174 0.04387807 -0.34263632 0.07643684 -0.0029291713 -0.29847926 0.32635725 0.3161664 0.3872951 -0.14116175 -0.256749 -0.050179217 -0.22286643 0.14986593 0.39968485 0.18296103
or -0.077028766 0.14052238 0.14594463 0.19066939 -0.105496295 -0.10254888 0.16197602 -0.4644946 -0.06711271 -0.49935457 0.07090931 0.22429842 -0.09460512 0.08068149 0.21246798 0.045766722 -0.048229065 -0.18339689 0.2820757 0.23727041 -0.14810371 0.14791992 -0.33200225 0.12116478 -0.058122624 0.21597712 0.20287889 0.16893217 -0.18132833 0.26303178 -0.11127475 0.03642465 -0.22766218 -0.0890128 -0.43860078 0.21413049 -0.38668805 0.24050666 -0.28888467 0.23230238 0.2601053 0.16378157 -0.23534936 -0.5142293 0.05629503 -0.40950406 -0.24460495 -0.09907255 0.33512568 0.49680588 0.18586107 0.08301431 -0.20021503 -0.3716659 0.09341236 0.1193723 0.062319297 -0.017248716 -0.30653492 0.35665584 0.17932849 -0.15776432 0.5025903 0.14142512 0.11297688 -0.045288324 -0.32494196 0.28233507 0.17758761 -0.15991962 -0.0655501 0.49379805 -0.19553192 0.113324545 -0.17596406 -0.2056295 0.009765909 0.13399892 0.09994454 0.020794315 0.3039119 -0.0025700477 0.17122309 -0.0048086294 -0.104641244 0.053320017 -0.009113123 0.3070883 0.03475137 0.21857668 -0.30448255 0.14802495 0.24571903 -0.50944644 0.25446382 0.102216974 -0.216869 0.5733129 0.026647694 -0.11216237 0.30419666 0.076153256 0.5524937 0.11323749 0.018415233 0.008203423 -0.12121038 0.049033802 0.10202596 0.02273251 0.37235028 -0.14882998 -0.00244906 0.56960475 -0.41654196 -0.3060003 0.029403714 -0.3294651 0.1498507 -0.09992505 0.3248139 0.11389492 0.12424087 0.3859264 -0.36703745 -0.24428035 0.24970394 0.002543302 -0.15589634 0.12742487 -0.041577723 -0.037375484 -0.14352089 0.034540482 -0.12767999 -0.052860186 0.06803802 0.06535249 -0.17358907 0.14190225 0.117182225 0.4975708 0.5268598 0.061097484 0.2982368 -0.27493635 0.0931927 -0.13339429 0.00026295253 0.045704834 0.10266106 0.2982082 0.29371694 0.23398146 -0.11046697 0.19405119 0.13255896 -0.025616113 0.002170641 -0.050331514 -0.044165432 -0.09132358 0.046751916 -0.052460272 -0.038163375 0.29911143 0.011076774 0.0060529457 0.15201105 0.009187636 -0.4602191 0.005734623 0.13546237 -0.13874823 -0.25520828 0.460155 0.19009452 0.231233 -0.22279157 -0.29639784 -0.2535839 -0.020076377 0.2751153 0.2893933 -0.31868833 0.16385947 -0.14541845 -0.04700673 0.062630534 -0.17299937 0.053367272 0.38040942 0.30590925 0.024314273 -0.020915508 -0.11396074 -0.48009148 -0.0009067132 0.30430847 0.12834623
is -0.014599845 -0.045038544 0.14917852 0.1551446 -0.38347635 -0.28531584 0.02016233 0.014322745 0.011130079 0.03678906 -0.16079576 0.16699614 -0.4226345 -0.39260074 -0.0787615 0.0077150515 0.1159141 -0.15687267 -0.054965694 0.41039997 -0.14121073 0.04470357 -0.27958986 0.27277672 -0.40409705 -0.081653275 0.38852367 0.16546787 0.04772532 0.33176726 -0.12679753 0.07839279 -0.17452753 -0.36122495 -0.4777432 0.14836793 -0.47934002 -0.17717406 0.37805453 0.48317692 0.29730237 0.03900071 -0.3061351 -0.4212384 0.34816068 -0.21029107 0.032410625 0.05893423 -0.0678812 0.5670721 0.092315055 0.062651 -0.39071044 -0.07166836 0.042177103 -0.13015534 -0.02036912 -0.045434203 -0.29759791 0.3415202 0.08061045 0.026810603 0.3494203 0.08480293 0.144866 -0.11111214 -0.26203048 -0.012110019 -0.17921683 -0.16791397 -0.0644139 0.44007868 -0.04853066 0.23542829 -0.059649765 0.33261022 0.19725534 -0.0125016505 0.29588035 0.09414407 -0.025690623 -0.10494638 0.15408443 -0.27316552 0.1245477 -0.1903925 0.032454025 0.062407576 0.07406439 0.18576139 -0.17777663 -0.16832373 0.3024655 -0.53337115 0.23874803 0.1444627 -0.2716244 0.34358963 0.08240527 -0.1760787 0.07548192 0.20718311 0.4707305 0.07100048 0.14027728 0.20053755 0.18258749 -0.06874139 0.12742919 -0.25108838 0.14982432 -0.3374336 0.026356693 0.26556414 -0.35685283 -0.14003375 0.3925963 0.09375046 -0.2843706 -0.22786486 0.17869613 0.18593585 0.46148247 -0.08627627 -0.34435242 -0.090579964 -0.043766968 0.10664302 -0.04341931 -0.027630843 0.12212169 0.17153591 -0.3599163 0.28077933 -0.25569728 0.23759642 -0.10505681 0.28649512 -0.33744267 0.118917204 0.058019996 0.16674346 0.19860506 -0.082871616 0.066549905 -0.26460075 -0.58224785 -0.43166664 -0.10170838 0.32685828 0.035242833 0.055708922 0.18698166 0.14591715 -0.012314532 0.117969155 0.100625336 -0.020446999 -0.26230022 0.49933705 0.13190483 -0.4668459 -0.1294241 -0.10011091 -0.0034320867 0.029401183 0.3538577 0.14695524 0.06263385 0.37298426 -0.55623126 -0.173212 -0.01077187 -0.24843931 -0.46396786 -0.022886895 0.19638118 0.15434052 -0.021230886 -0.32021987 0.073773585 -0.33543465 0.3097542 0.046662033 -0.27254394 0.40143576 0.1939027 -0.20533296 -0.018606761 -0.42909226 -0.21584374 0.51839954 0.21789148 0.070899665 -0.34793246 -0.18102978 -0.086906604 -0.05709187 0.30079025 0.015126839
The -0.17198513 0.06945494 -0.15271664 0.0035923845 -0.5934979 -0.22545111 -0.27765527 -0.25120494 0.21462677 -0.2431909 -0.30370185 -0.156349 0.06290133 0.14502817 -0.14917065 -0.4052714 0.045855127 -0.03256568 -0.041003358 0.6108092 -0.14132063 0.6242418 0.24790221 -0.05194816 -0.17426038 0.09941151 0.18678229 -0.29193112 -0.35477674 0.5158453 -0.03638528 -0.060650233 -0.43045947 -0.2348652 -0.097004406 -0.21820231 -0.34045702 -0.25438833 -0.103690885 0.33644617 0.31913456 0.13007702 0.052490924 -0.7703638 0.34100115 0.18645762 0.4153679 0.24403001 0.23361664 0.21750398 -0.3067254 0.19358642 -0.11217917 -0.33398008 -0.10804384 0.6561507 -0.15066202 -0.025920482 -1.0551941 0.3116732 -0.19393033 -0.1722879 0.13744216 0.18745801 -0.25120187 -0.059429027 0.18549913 0.07549835 0.41338897 -0.19761236 0.10809731 0.47390828 -0.09764273 0.18722315 0.11720918 0.19522478 -0.36380503 0.02232777 -0.068182416 -0.2608644 0.40841952 0.19860217 0.21037689 0.060150363 -0.10565857 -0.043362707 -0.27714574 0.3626545 -0.42872933 -0.21671396 0.011269691 -0.5007728 0.11875321 -0.018561073 0.68112963 0.6764901 -0.3015726 0.43280587 0.044928655 0.14299224 0.08486775 -0.12885444 0.15227245 0.09258091 0.39639854 0.118062936 0.18302613 -0.0012293656 -0.027496357 -0.65084 -0.303352 -0.33805946 -0.07307081 0.3884538 -0.074743226 -0.101274915 0.39802662 -0.027405515 0.20851707 0.63707334 0.19946313 0.33293205 0.16720821 -0.05158574 -0.75146675 -0.30107534 0.09684261 -0.37188938 -0.015162999 0.19345117 0.016639488 0.11979744 -0.10363688 0.51306796 -0.06030702 -0.13547266 -0.18345809 0.51012886 -0.15020949 0.07340939 -0.06300399 -0.045103002 0.15186718 -0.29170588 -0.5745353 -0.23303239 -0.38504827 -0.009701342 0.20582767 -0.23832831 0.02807473 0.08758898 0.45044154 -0.26263347 -0.19172002 0.10863601 0.17371668 0.022232857 -0.14650932 -0.10229627 -0.02030449 -0.35220465 -0.016274763 0.29332545 -0.223851 0.0116092125 0.009168999 -0.073516905 -0.03128649 0.06598594 -0.51623666 -0.019051036 0.15808868 0.19503102 -0.24682714 -0.2518544 -0.058858164 0.31792468 -0.14252175 -0.25062642 -0.046754856 0.2623518 0.01418658 0.0033385647 -0.19450209 0.2479986 -0.4825653 0.24510214 0.327005 0.050205685 -0.39716277 0.9737043 0.14622995 0.1846331 0.23740436 -0.14849581 -0.3435976 0.009889989 0.16189224 0.2778223
be -0.124650426 0.31737572 0.23755233 -0.07547991 -0.48028708 -0.029565265 -0.4322466 -0.21132725 -0.0019090117 -0.00591105 -0.069489956 0.20993882 0.1344164 -0.2217973 -0.10814837 -0.04346423 0.25490156 -0.018147677 0.14123137 0.50396854 -0.27128986 0.07936523 -0.39236858 0.15530638 -0.10587189 0.091319725 0.42691737 -0.28219694 -0.08971391 0.25859106 -0.25564766 0.0013953681 -0.26411766 -0.3583137 -0.25155678 0.05371115 -0.51532847 -0.00030334154 0.1132008 0.6268313 0.5934702 -0.0956027 -0.27558237 -0.3595835 0.19958355 -0.030109132 -0.20008765 -0.15647466 -0.11470027 0.5145803 -0.02441223 0.32924435 -0.6436009 -0.1870897 0.107087 0.074820116 -0.25585487 0.12892006 -0.6359398 0.060153857 0.2171992 0.036711805 0.3796936 0.048208214 0.0965369 -0.026560403 0.046979845 -0.11661471 0.009127991 0.051911823 -0.14149101 0.41406548 -0.00949877 0.24531859 -0.15343753 0.09238559 0.031177556 -0.12049946 0.0013635216 0.24557856 -0.27281925 0.38068753 0.13976988 0.42986932 -0.1981466 -0.40642512 -0.056207113 0.19636023 0.06591341 0.06374929 -0.09520683 0.08956827 0.24593423 -0.20723882 0.39530507 -0.032684598 -0.122074865 0.19794981 0.22531873 -0.13064055 0.052977826 -0.09863554 0.45326787 0.11974873 0.13051102 0.1601603 0.36920214 -0.03965672 0.30942497 -0.41363555 0.060920708 -0.26466975 -0.47830305 0.35367495 -0.18425396 -0.28732303 -0.023503587 0.11246595 -0.34191698 -0.06307074 0.039552882 0.0120217465 -0.12616618 0.17640357 -0.33358943 -0.14669581 4.470958e-05 0.14136846 -0.04547891 0.23991868 0.15819569 -0.0040349895 -0.17535828 0.3021249 -0.49864334 -0.1106569 -0.0786353 0.32319131 -0.02872786 -0.07560482 0.22484149 0.44659406 0.35673735 0.17777553 -0.24304235 -0.076941594 -0.25371253 -0.09134296 0.16180615 0.11226152 0.1387272 0.054976914 0.33524773 0.20600064 -0.12007553 0.022533625 0.39154297 -0.14193663 0.015584815 0.44283667 0.08330913 -0.28548235 0.062466532 -0.5615663 0.06519845 0.19455859 -0.03964609 -0.025088226 0.19034438 0.03201483 -0.23869218 0.1548041 -0.14526875 -0.2929764 -0.33402443 -0.112842076 0.15328154 0.024198618 -0.063029245 -0.14775611 -0.34073743 -0.091175094 0.05701316 -0.14029153 -0.077305235 0.4062983 -0.059012216 -0.16670395 0.29705954 -0.31766418 -0.047450792 0.13160469 0.27856213 0.41917813 -0.2857237 -0.16468833 -0.304329 -0.0812225 0.46170285 0.03477447
for 0.07769453 -0.29642674 -0.042229787 -0.07759131 -0.042700518 -0.19753954 -0.3835485 0.42129216 0.018112164 -0.3671263 -0.3156184 0.24846965 0.021248508 -0.0939257 -0.2854985 -0.12947966 0.04461929 0.035691895 0.19197147 0.12818082 0.29952255 0.1831803 -0.5048023 -0.2791023 -0.17793739 0.010578918 0.19581911 -0.21317965 -0.005599757 0.17575021 -0.073771715 -0.06796829 -0.26274186 -0.022564383 -0.43532404 0.1044004 -0.38594896 -0.08771329 0.26352084 0.25899425 0.23862478 0.26950756 -0.14419803 -0.6357929 -0.05137355 -0.47306737 0.22989726 0.0897153 -0.018391665 0.22738206 -0.17302546 0.10345185 0.0860728 -0.35914725 0.041383777 0.18004404 -0.10291699 0.17598633 -0.21277705 0.45705846 0.07110072 -0.16786581 0.43259355 -0.04901774 0.11966471 -0.11622161 -0.016854636 0.20330101 0.00604894 -0.23950896 -0.46501577 0.49303228 -0.10688006 0.015865967 -0.043270774 -0.25897554 -0.24363141 -0.07620619 -0.26141834 -0.13955705 0.16583891 0.31794387 0.23216 0.33536693 -0.012569644 -0.09268659 0.024510624 0.3092299 -0.28628093 0.039217867 -0.0629737 -0.14987704 0.21366188 -0.06524695 0.37780264 0.10527413 -0.27388474 0.62493646 0.3115957 0.05626498 0.2121059 -0.24702395 0.0220478 0.009063694 0.05090463 0.08070138 -0.03424184 0.12156134 0.009863233 -0.19479199 0.067457534 -0.08130992 -0.20588146 0.4676756 -0.3711373 -0.23130076 0.08609558 -0.12230569 -0.12817295 0.13648348 0.39759228 0.2711713 0.0876662 -0.059960317 -0.5352262 -0.389747 0.2953531 -0.33211017 -0.25895914 0.07486016 -0.07636353 0.08946201 -0.16254011 0.06543615 -0.11369935 0.101288095 -0.005550278 0.1540225 -0.48472893 0.229725 -0.038214773 0.06433804 0.49905133 0.18198664 -0.23162681 -0.18111078 -0.36323792 -0.018929053 -0.29037026 0.30528527 0.37214157 0.07628462 -0.109169036 0.24669638 0.07544569 -0.22171292 0.18123922 -0.04954145 0.05804414 0.28769675 0.085625716 -0.35828903 -0.07918887 -0.29926568 0.20105016 -0.05793586 0.276545 0.03350574 -0.123135395 -0.25358388 -0.52280045 0.412338 0.3108004 0.14708985 -0.6182625 -0.16880472 0.014012712 0.37772605 -0.081772946 0.13116227 0.16694592 0.20747843 0.17609157 0.20623226 -0.22819388 -0.15900208 -0.14936545 -0.046944123 0.045220282 -0.41803113 0.01304683 0.1295269 0.1847861 0.32733828 -0.23363629 -0.20506044 -0.024835557 0.07828392 0.058999337 0.06859186
with 0.0696534 -0.17824283 0.10005959 0.078674935 -0.25206715 0.08207332 0.049441777 -0.11308047 -0.001491504 -0.105330445 -0.15855545 0.36266458 0.17658398 -0.21065085 0.20392244 -0.015955577 0.13539386 -0.26904017 0.16691148 0.4190668 0.026668942 0.10069468 -0.2737501 0.1216449 -0.3683736 -0.02160283 -0.11258814 -0.34629413 -0.027943589 0.7735 -0.3432266 0.23517545 -0.019502068 -0.007374538 -0.22745961 0.20770136 -0.05364434 0.15644474 -0.087290525 0.19138686 -0.025840681 0.0569755 -0.26575667 -0.33864415 0.3019202 -0.42757192 0.1869433 0.09855497 0.24837048 0.13845669 0.10349125 0.1153603 -0.27493855 -0.3439291 0.32276145 0.013883993 0.05623043 -0.015206834 -0.36235535 0.08664824 0.027868662 -0.04045665 0.48329332 0.17815278 0.026572203 0.08773103 -0.20468716 0.38176626 -0.16896161 -0.19178852 0.29407048 0.4880333 0.0022227967 -0.098297395 -0.3360728 0.062134385 -0.18764888 -0.2543931 -0.028570483 -0.15425985 0.12796237 0.021515993 -0.0012317036 0.143327 -0.09368991 -0.1833928 -0.111074254 0.5136502 -0.42239 0.12263598 -0.26980212 -0.055594005 0.15484728 -0.29355675 0.6784831 0.6062962 -0.1603662 0.5342769 0.23835218 -0.10036426 0.162093 0.16011015 0.42818466 0.19208573 0.29611892 0.02852923 0.06271018 -0.119497254 0.024784632 -0.5436203 -0.008091135 -0.043228477 -0.26121008 0.24071713 -0.2127618 -0.10320474 0.08593955 -0.3159664 -0.2752593 0.2504951 0.28323403 0.375735 0.15805034 -0.33646262 -0.07566139 -0.21590754 0.40415546 -0.012055743 -0.5300722 0.14871986 -0.045020953 0.39886826 0.01450512 0.13088126 -0.06541936 0.12097847 0.017785711 0.6096424 -0.28554103 0.46110603 -0.09194932 0.37377962 0.24428298 -0.31068313 0.018717274 -0.5082236 -0.17987446 0.228387 0.025472362 -0.01994011 0.19240531 -0.204596 0.2570192 0.23733054 0.1846271 0.052961513 0.3383157 0.019906038 -0.17366715 0.026262127 0.3041774 -0.20938958 -0.16595532 -0.3628613 0.27400407 0.331839 0.06774713 0.10545072 -0.08791017 -0.05250443 -0.3412884 0.34572482 -0.1211773 0.12225212 -0.22275946 -0.00832014 0.14028588 0.08842723 0.14597136 -0.31757426 -0.08709501 0.050773315 -0.08075516 0.15532261 -0.14200011 -0.13179646 0.18780406 -0.057349868 0.07712701 -0.39536434 -0.0012714796 0.46452165 0.21547799 0.08529359 -0.04214244 -0.35151976 -0.3573329 0.11208963 0.5211509 0.19902852
as -0.021233557 0.04251188 0.24789602 -0.039791405 -0.38593075 -0.05352888 -0.0058192806 -0.29145434 0.27836183 -0.15180045 -0.25310034 0.20627113 0.0070364885 -0.20765892 -0.19915862 -0.021493368 0.002176803 0.21271248 0.21327215 0.37674558 -0.01786953 -0.03724937 -0.5478015 -0.15237029 -0.24183969 0.012535758 0.14818545 0.011431698 0.05446341 0.51668316 -0.17280121 0.0614584 -0.12793948 -0.3655816 -0.426829 0.36803377 -0.21788965 -0.10753193 0.2889548 0.25816005 -0.04123836 0.20244241 -0.29742166 -0.46964946 0.041905276 -0.3216426 -0.42117193 -0.10129055 0.13754809 0.17986293 0.13369359 0.24870433 0.03161025 -0.14786842 0.2265188 0.5244111 -0.0946874 -0.023038179 -0.18051125 0.33638754 -0.11063105 -0.23909852 0.37573555 0.2876482 -0.33188152 -0.1719399 -0.21586402 0.4362354 -0.007691507 -0.26655504 -0.07533073 0.3832206 0.09958851 0.12484745 -0.35111308 -0.055605456 -0.008755179 0.22540021 -0.30569363 0.05706035 -0.025500761 -0.14314727 0.12756817 0.011581054 0.2733697 -0.21368851 -0.014649584 0.38066 0.023367658 -0.23395245 -0.12820065 -0.110894166 0.3381463 -0.008034953 0.60585374 0.5371335 0.121982105 0.26521158 0.004924705 0.075765915 0.16927254 -0.10987086 0.25578427 0.045989834 0.19581883 -0.13185105 -0.2451354 0.49566582 0.18764354 -0.16542289 -0.059941612 -0.6181993 0.006469498 0.7352931 -0.31139696 0.24526106 -0.19637915 0.01263978 -0.034218807 0.02203033 -0.021266578 -0.043952104 0.23495702 0.03491027 -0.21324264 -0.49263605 -0.08680291 -0.053433772 -0.25205007 0.13407834 -0.25650048 0.19004053 0.12513138 -0.08691104 -0.37569475 0.1739803 -0.40717268 0.2641223 -0.0997192 0.027005332 -0.01484976 0.37390804 0.34398684 0.07468222 -0.26220468 -0.16328633 -0.1278756 -0.2840543 -0.04840539 -0.089254215 0.31217918 0.13198735 0.00581496 0.12434146 -0.31446674 0.2608845 -0.05057837 -0.21287839 -0.47875893 0.27718204 0.00025622058 -0.13215113 -0.01407721 -0.15234978 0.16417181 0.47440097 0.101777494 -0.0095969485 -0.08072195 0.111642934 -0.09537591 0.05638537 0.007307708 -0.032702222 -0.34122446 0.053326428 0.18076669 0.21753661 -0.116626255 -0.06365923 0.016222855 0.16047195 0.031184636 0.23179609 -0.31273586 -0.13130628 -0.15259756 -0.08041143 -0.049923368 -0.25846988 -0.05340099 0.07523603 0.31604332 0.06918269 -0.18471743 -0.06784846 -0.27832195 -0.25740206 0.44690546 0.20446521
- 0.20584299 0.031450246 0.09207828 0.13476306 0.08618451 -0.32365984 0.39240897 -0.034760114 -0.032084424 -0.2099981 -0.1330581 -0.046420384 0.04138961 -0.32398725 -0.014699107 -0.03761487 -0.13295317 -0.30811888 0.14984582 0.40588883 -0.040429194 0.22691844 -0.21327631 0.13230965 -0.22909589 -0.05424544 0.054981384 -0.14666304 -0.52572227 0.019170353 0.28347415 -0.2783471 0.15943025 -0.07395929 -0.44188696 -0.23340859 -0.27854422 -0.236555 0.16353521 0.17071973 0.2533001 0.491046 -0.051549863 -0.32565424 0.170982 -0.5351075 -0.05359751 0.17672975 0.13097504 0.46532175 -0.35707933 -0.34159014 0.14657556 -0.20890097 0.049811177 0.37282193 -0.021051556 -0.24757926 -0.49612045 0.16934475 -0.043289635 -0.24629107 0.1736055 -0.29446566 -0.4984884 0.18060999 0.15723932 0.5148003 0.06294445 0.17160867 -0.043295577 0.34938702 0.21166287 -0.1460126 -0.024356127 0.15660389 0.20094359 0.12900454 0.13285367 -0.109431624 0.44159025 0.46563134 -0.075871915 -0.18324171 0.32680604 -0.26156092 0.07998077 0.38790363 -0.31266537 0.03686423 -0.4497966 -0.06075738 0.31817424 -0.3819854 0.53314614 0.18118389 0.1455398 -0.017737892 0.1342424 0.2419893 0.2442265 -0.15798669 0.5003388 0.11160678 -0.029973296 0.18277363 0.02484261 -0.37701228 0.22196896 0.09264951 0.15464629 -0.45176303 -0.2103616 0.557614 -0.18294057 0.07727246 -0.36490434 -0.046322986 -0.0040712385 -0.15029562 0.21363181 0.36655152 0.084196344 0.26641506 -0.13213246 -0.25132743 0.0065035657 -0.33713368 0.0038562662 -0.12254017 0.17104667 -0.20429608 0.1499171 0.3062901 -0.23596549 -0.1127166 0.06172283 0.153563 -0.2503797 0.17729563 -0.30499968 0.56778914 0.32438853 -0.4332191 0.036749918 -0.09718851 -0.672323 -0.016455017 -0.34211746 0.06796196 0.05477561 -0.13356073 0.29749197 0.2781299 0.35212767 0.11647759 0.083910055 0.048146844 -0.3137601 -0.0013358557 0.100672044 -0.45737514 -0.08028024 0.12562989 0.4502885 0.013470954 0.40024263 0.14723065 -0.15567636 0.08397617 -0.47294804 0.15157261 0.17862962 0.04167191 -0.24715035 -0.007948694 0.19027156 0.12233284 0.25542194 0.08861546 -0.027189765 0.051180933 -0.2292157 0.23104888 0.19957653 0.30070382 0.0413714 0.05777427 0.4401726 -0.07886831 0.2732013 0.262341 0.25525942 -0.088773616 -0.16137095 -0.10474142 -0.1975463 0.09139032 0.61494625 0.058825526
an 0.15950397 -0.02462107 -0.069346435 0.35401994 -0.38544354 -0.04594505 0.0705613 -0.38404453 0.2802279 -0.18413857 -0.16848399 0.42922288 -0.002524041 -0.5555383 0.1853542 0.060926937 -0.12625974 0.15002 0.20879605 0.32331023 -0.14953402 0.21092823 0.18402518 -0.03984783 -0.33076164 0.18941139 0.29365245 0.24197614 -0.053516682 0.28532508 -0.1199629 0.2292545 -0.25079882 0.015694777 -0.61185 -0.13751113 -0.29608622 -0.09364416 0.032282714 0.2779524 0.41564316 -0.049459778 -0.05662266 -0.41813138 0.17761874 -0.38668385 0.17549115 0.28146765 0.29445162 0.5973208 0.005921684 0.37078565 -0.10108181 -0.36528915 0.13758692 -0.22983088 0.0026416525 0.2257401 -0.40451548 0.08469134 -0.12809621 -0.008686789 0.69956166 0.3415949 -0.100708835 0.0517802 -0.17849466 -0.075715415 0.7049854 -0.1583202 0.026291046 0.4473282 -0.28161883 0.36488545 -0.054214112 0.041133482 -0.19460668 -0.032964006 -0.43456396 0.3845392 0.1502896 -0.046118766 0.13751034 -0.1502406 0.3379816 -0.15685475 -0.33314142 0.40221852 -0.28673494 0.18007682 -0.3250267 -0.12427165 0.30282187 0.19848089 -0.14198536 0.31120533 -0.29825506 0.36972237 0.14239667 -0.31307292 0.22627878 -0.06170242 0.19556464 0.16846427 0.23860171 0.31017777 -0.010343787 -0.399979 0.27784532 -0.19975491 0.20806856 -0.36471966 -0.15177529 0.45167923 -0.6164553 -0.109693654 -0.08376873 0.1366238 -0.18494385 -0.08886091 0.1488429 0.20316295 0.3086236 0.0546658 -0.22233209 0.113695554 0.24674563 -0.04862154 -0.40385705 -0.15297975 -0.14020944 0.068199 -0.30469453 0.15337566 -0.14060639 -0.20020807 0.005705764 0.39182267 -0.08227672 0.12057578 0.34215018 0.4589605 0.3213324 0.020147339 0.07324163 -0.16958465 -0.1190125 0.1694335 0.112009555 0.13951248 0.34061703 -0.31818628 0.054600082 0.2901726 -0.15474543 -0.1860059 -0.042067986 -0.14790015 -0.27232853 0.23430896 0.36640716 -0.7598901 -0.0015801841 0.27814868 0.10555433 -0.050971292 0.076303355 0.025976837 -0.11485188 0.35878432 -0.56181973 0.06398468 0.31868476 0.03850247 -0.14630659 -0.19288823 0.21741994 0.049818173 0.059149668 -0.16652703 0.29159606 -0.30792797 0.48297635 0.22672082 0.008279552 -0.084735535 -0.06290015 -0.30915484 0.015423877 -0.27154723 -0.14183824 0.64238185 0.21349332 0.14235851 -0.20683117 -0.18981144 0.010309942 -0.27902848 0.2755073 -0.22452445
/ 0.24920991 -0.3180842 0.05439073 0.11418932 0.10049997 -0.026680034 0.1638779 -0.42461082 -0.049397398 -0.45618176 0.1481937 0.14590512 -0.17882855 0.28009176 -0.07054935 0.31385025 -0.3642553 -0.06327931 0.27050856 0.20492029 0.40091988 0.45405626 -0.25032973 -0.34962866 -0.29577887 0.26446733 -0.15647027 -0.10654886 -0.3223626 0.26396343 -0.0060635195 -0.27848727 -0.14139217 -0.06403628 -0.48742232 -0.0038835376 -0.123459786 0.0544523 -0.2865303 -0.19966438 0.23420326 0.13951576 -0.03701315 -0.40412265 -0.09669972 -0.12597947 -0.07266837 -0.079131074 0.30140498 0.24495675 0.12489386 -0.48077127 -0.0952869 -0.6166614 -0.12615982 0.34361514 -0.4645575 -0.09515835 -0.1925705 0.3297863 0.20961478 -0.5854121 0.23130666 -0.16423875 0.33864218 -4.695833e-06 -0.008830332 0.43614903 -0.41707465 -0.14293212 -0.12762254 0.40938634 0.18834616 0.33214912 0.05596581 0.102007285 -0.17081481 -0.022605024 0.30337116 0.0846943 0.13117911 0.05087473 0.05566073 0.08857724 0.3377187 -0.18489926 -0.18536678 -0.040212184 -0.025878016 -0.23814377 -0.208403 0.16330364 0.099241465 -0.61909634 0.013647113 0.28348473 0.04558074 0.45423627 0.5563732 0.35907272 0.49272838 -0.004234934 0.46312252 -0.13173027 0.32701457 0.00051039504 -0.1253256 -0.28851646 -0.10301896 0.12875769 -0.15674454 -0.6279204 -0.0041866414 0.3963037 0.12671268 0.1564768 0.015396072 0.10135415 -0.041584488 0.16261278 0.25804457 -0.12510398 -0.057096582 0.021115355 -0.20198837 -0.34055203 0.252729 0.33567002 -0.3182467 -0.2360907 0.14391987 -0.47229874 -0.40208524 0.2433744 0.46272627 -0.18159029 -0.1780949 0.46713203 -0.42136896 0.40531632 -0.13878176 0.6162303 0.2573171 0.056900293 -0.14996128 -0.16695854 -0.007833805 0.035973698 -0.04575099 -0.2221056 0.4839765 0.17930718 -0.17877758 -0.10092068 0.429404 0.32717744 -0.14510699 0.009788255 -0.11221963 -0.0031636786 0.3717292 -0.18649524 0.20241906 -0.1288531 -0.40824974 -0.17599937 0.13159728 -0.054328404 -0.19363761 0.044743568 -0.39655033 0.020727385 0.21818495 0.0060609966 0.007807954 0.135623 0.031647004 0.3829543 -0.0040565263 -0.3015033 0.1202788 -0.29732606 -0.6365204 0.43912184 -0.7228059 0.08077168 -0.16843604 0.0083678765 -0.09093114 -0.34420946 0.14832328 0.06400823 0.032718174 0.041355137 -0.25644106 -0.46152994 -0.6627431 -0.21997403 0.06529462 -0.044241063
